tree
version=v4
num_class=1
num_tree_per_iteration=1
label_index=0
max_feature_idx=7
objective=binary sigmoid:1
feature_names=Column_0 Column_1 Column_2 Column_3 Column_4 Column_5 Column_6 Column_7
feature_infos=[0:0.78946422092756108] [0:0.79268073241656678] [0:1] [0:1] [0.01142542800625293:0.99999999999999989] [0:1] [0:0.94918907678081965] [0:1]
tree_sizes=3523

Tree=0
num_leaves=33
num_cat=0
split_feature=6 0 0 0 4 4 1 0 1 1 4 4 1 6 2 4 4 0 6 6 0 1 4 4 4 4 4 6 1 0 0 4
split_gain=14.4805 4.96862 4.62522 8.03271 5.82364 12.7341 7.10489 7.70308 5.09379 4.34797 4.23691 3.40547 3.25246 4.17772 3.1276 5.18843 3.51852 4.42038 3.95028 2.97395 2.7534 2.88055 2.53796 3.19374 2.51948 2.14209 2.13899 1.99405 1.25353 0.586833 0.264164 0.247339
threshold=0.88688551281081163 0.00085219752617626831 0.51827140804016514 0.49070532053304977 0.24208879677476025 0.18065772507784081 0.36450673593933752 0.013119403625287742 0.68073506666765948 0.079448631338560519 0.50663869075666612 0.69317546040530331 0.37102631198456754 0.62504095103935853 1.0000000180025095e-35 0.52666611960447562 0.44548110085702547 0.19584716176100628 0.71834791000843834 0.69169056249294947 0.76426653177034298 0.72296364746908004 0.20718119433609802 0.19230556710682126 0.25190510250704734 0.22878553015285122 0.14802865447730015 0.68675845721075379 0.48080542291312972 0.37779899687433866 0.74222593088556077 0.39580483563279001
decision_type=2 2 2 2 2 2 2 2 2 2 2 2 2 2 2 2 2 2 2 2 2 2 2 2 2 2 2 2 2 2 2 2
left_child=1 -1 3 4 5 6 7 -3 -4 31 30 -12 -8 -14 16 29 18 -18 -11 -17 21 24 23 -7 26 -24 -10 -9 -5 -16 -2 -6
right_child=10 2 8 28 9 22 12 27 20 14 11 -13 13 -15 15 19 17 -19 -20 -21 -22 -23 25 -25 -26 -27 -28 -29 -30 -31 -32 -33
leaf_value=0.37924257697321107 -0.26137739310383939 -0.12918597070698792 0.39619019522921767 -0.037668832124552132 0.34166307562293552 -0.037668832124552049 -0.13554132755299042 0.24801304642332184 0.074185448365091694 0.14772286460395781 0.16739734877312815 -0.1271522565162671 0.29789400934437904 0.018258308120269781 0.2978940093443791 0.24196686909955736 -0.17189396871212465 0.081544282607831378 -0.019026452042944828 -0.058974409360674718 -0.011856305857711247 0.32839972220519115 0.092226461347292274 -0.28769604733669701 -0.019026452042944828 -0.11223835245098129 0.29789400934437915 0.092226461347292274 -0.23087168024302762 0.43008543174123087 -0.18002882547500781 0.26060924918116457
leaf_weight=5.4854530692100516 4.9867755174636867 5.4854530692100516 8.228179603815077 4.9867755174636823 5.7347918450832349 7.4801632761955288 7.9788408279418936 36.902138829231262 5.9841306209564262 144.11781245470047 5.9841306209564191 6.2334693968296051 4.9867755174636867 24.93387758731842 4.9867755174636859 4.9867755174636823 6.2334693968296042 37.899493932723999 11.96826124191284 5.2361142933368683 6.4828081727027884 8.228179603815077 7.7295020520687094 8.4775183796882612 5.98413062095642 8.228179603815077 7.4801632761955261 7.7295020520687094 5.4854530692100525 5.4854530692100525 8.228179603815077 5.9841306209564209
leaf_count=22 20 22 33 20 23 30 32 148 24 578 24 25 20 100 20 20 25 152 48 21 26 33 31 34 24 33 30 31 22 22 33 24
internal_value=0.102948 0.115588 0.112021 0.101842 0.108992 0.05907 0.113794 0.182701 0.199199 0.134728 -0.101272 0.0171169 0.0226736 0.0648643 0.125946 0.229164 0.115278 0.0457479 0.134937 0.0878262 0.151749 0.190071 -0.0918482 -0.170496 0.131547 -0.0132007 0.198468 0.221033 -0.13887 0.367137 -0.210726 0.300274
internal_weight=0 410.91 405.425 363.037 352.565 119.932 88.0166 50.1171 42.3876 232.633 25.4326 12.2176 37.8995 29.9207 220.914 20.6951 200.219 44.133 156.086 10.2229 34.1594 27.6766 31.9154 15.9577 19.4484 15.9577 13.4643 44.6316 10.4722 10.4722 13.215 11.7189
internal_count=1750 1648 1626 1456 1414 481 353 201 170 933 102 49 152 120 886 83 803 177 626 41 137 111 128 64 78 64 54 179 42 42 53 47
is_linear=0
shrinkage=1


end of trees

feature_importances:
Column_4=12
Column_0=8
Column_1=6
Column_6=5
Column_2=1

parameters:
[boosting: gbdt]
[objective: binary]
[metric: binary_logloss]
[tree_learner: serial]
[device_type: cpu]
[data_sample_strategy: bagging]
[data: ]
[valid: ]
[num_iterations: 236]
[learning_rate: 0.278896]
[num_leaves: 116]
[num_threads: 1]
[seed: 42]
[deterministic: 0]
[force_col_wise: 0]
[force_row_wise: 1]
[histogram_pool_size: -1]
[max_depth: 9]
[min_data_in_leaf: 20]
[min_sum_hessian_in_leaf: 0.001]
[bagging_fraction: 1]
[pos_bagging_fraction: 1]
[neg_bagging_fraction: 1]
[bagging_freq: 0]
[bagging_seed: 400]
[feature_fraction: 1]
[feature_fraction_bynode: 1]
[feature_fraction_seed: 30056]
[extra_trees: 0]
[extra_seed: 12879]
[early_stopping_round: 0]
[early_stopping_min_delta: 0]
[first_metric_only: 0]
[max_delta_step: 0]
[lambda_l1: 0]
[lambda_l2: 0]
[linear_lambda: 0]
[min_gain_to_split: 0]
[drop_rate: 0.1]
[max_drop: 50]
[skip_drop: 0.5]
[xgboost_dart_mode: 0]
[uniform_drop: 0]
[drop_seed: 17869]
[top_rate: 0.2]
[other_rate: 0.1]
[min_data_per_group: 100]
[max_cat_threshold: 32]
[cat_l2: 10]
[cat_smooth: 10]
[max_cat_to_onehot: 4]
[top_k: 20]
[monotone_constraints: ]
[monotone_constraints_method: basic]
[monotone_penalty: 0]
[feature_contri: ]
[forcedsplits_filename: ]
[refit_decay_rate: 0.9]
[cegb_tradeoff: 1]
[cegb_penalty_split: 0]
[cegb_penalty_feature_lazy: ]
[cegb_penalty_feature_coupled: ]
[path_smooth: 0]
[interaction_constraints: ]
[verbosity: 1]
[saved_feature_importance_type: 0]
[use_quantized_grad: 0]
[num_grad_quant_bins: 4]
[quant_train_renew_leaf: 0]
[stochastic_rounding: 1]
[linear_tree: 0]
[max_bin: 255]
[max_bin_by_feature: ]
[min_data_in_bin: 3]
[bin_construct_sample_cnt: 200000]
[data_random_seed: 175]
[is_enable_sparse: 1]
[enable_bundle: 1]
[use_missing: 1]
[zero_as_missing: 0]
[feature_pre_filter: 1]
[pre_partition: 0]
[two_round: 0]
[header: 0]
[label_column: ]
[weight_column: ]
[group_column: ]
[ignore_column: ]
[categorical_feature: ]
[forcedbins_filename: ]
[precise_float_parser: 0]
[parser_config_file: ]
[objective_seed: 16083]
[num_class: 1]
[is_unbalance: 0]
[scale_pos_weight: 1]
[sigmoid: 1]
[boost_from_average: 1]
[reg_sqrt: 0]
[alpha: 0.9]
[fair_c: 1]
[poisson_max_delta_step: 0.7]
[tweedie_variance_power: 1.5]
[lambdarank_truncation_level: 30]
[lambdarank_norm: 1]
[label_gain: ]
[lambdarank_position_bias_regularization: 0]
[eval_at: ]
[multi_error_top_k: 1]
[auc_mu_weights: ]
[num_machines: 1]
[local_listen_port: 12400]
[time_out: 120]
[machine_list_filename: ]
[machines: ]
[gpu_platform_id: -1]
[gpu_device_id: -1]
[gpu_use_dp: 0]
[num_gpu: 1]

end of parameters

pandas_categorical:null
